svm_type c_svc
kernel_type rbf
gamma 0.0625
nr_class 10
total_sv 10
rho 0 0 0 0 0 0 0 0 0 0 0 0 0 0 0 0 0 0 0 0 0 0 0 0 0 0 0 0 0 0 0 0 0 0 0 0 0 0 0 0 0 0 0 0 0
label 0 1 2 3 4 5 6 7 8 9
nr_sv 1 1 1 1 1 1 1 1 1 1
SV
1 1 1 1 1 1 1 1 1 1:4 2:2 3:2 4:2 5:2 6:2 7:2 8:2 9:2 10:4 11:8 12:2 13:2 14:2 15:2 16:8 
-1 1 1 1 1 1 1 1 1 1:1 2:2 3:1 4:1 5:1 6:1 7:1 8:1 9:1 10:3 12:2 13:10 14:1 
-1 -1 1 1 1 1 1 1 1 1:4 2:1 3:1 4:1 5:1 6:1 7:1 8:1 9:1 10:5 11:2 12:3 13:3 14:3 15:3 16:3 
-1 -1 -1 1 1 1 1 1 1 1:4 2:1 3:1 4:1 5:2 6:1 7:1 8:1 9:1 10:4 12:2 13:2 14:3 15:3 16:7 
-1 -1 -1 -1 1 1 1 1 1 1:1 2:2 3:2 4:2 5:2 6:2 7:6 8:1 9:1 10:3 11:2 12:2 13:3 14:3 15:10 16:2 
-1 -1 -1 -1 -1 1 1 1 1 1:5 2:1 3:1 4:1 5:5 6:1 7:1 8:1 9:1 10:4 11:5 12:3 13:3 14:3 15:3 16:4 
-1 -1 -1 -1 -1 -1 1 1 1 1:2 2:1 3:1 4:1 5:4 6:3 7:2 8:2 9:2 10:4 11:7 12:3 13:3 14:3 15:2 16:4 
-1 -1 -1 -1 -1 -1 -1 1 1 1:6 2:2 3:1 4:1 5:1 6:1 7:1 8:1 9:1 11:2 12:2 13:3 14:3 15:3 16:2 
-1 -1 -1 -1 -1 -1 -1 -1 1 1:4 2:2 3:2 4:2 5:4 6:2 7:2 8:2 9:2 10:4 11:7 12:3 13:3 14:3 15:3 16:7 
-1 -1 -1 -1 -1 -1 -1 -1 -1 1:4 2:2 3:2 4:2 5:3 6:4 7:1 8:1 9:1 10:2 11:4 12:2 13:3 14:3 15:3 16:7 
